digraph Tree {
node [shape=box, style="filled, rounded", color="black", fontname=helvetica] ;
edge [fontname=helvetica] ;
0 [label="weight <= 72.5\nentropy = 1.0\nsamples = 8\nvalue = [4, 4]\nclass = Man", fillcolor="#e5813900"] ;
1 [label="weight <= 48.5\nentropy = 0.722\nsamples = 5\nvalue = [1, 4]\nclass = Woman", fillcolor="#399de5bf"] ;
0 -> 1 [labeldistance=2.5, labelangle=45, headlabel="True"] ;
2 [label="entropy = 0.0\nsamples = 1\nvalue = [1, 0]\nclass = Man", fillcolor="#e58139ff"] ;
1 -> 2 ;
3 [label="entropy = 0.0\nsamples = 4\nvalue = [0, 4]\nclass = Woman", fillcolor="#399de5ff"] ;
1 -> 3 ;
4 [label="entropy = 0.0\nsamples = 3\nvalue = [3, 0]\nclass = Man", fillcolor="#e58139ff"] ;
0 -> 4 [labeldistance=2.5, labelangle=-45, headlabel="False"] ;
}